digraph Tree {
node [shape=box, style="filled", color="black", fontname="helvetica"] ;
edge [fontname="helvetica"] ;
0 [label="Ram <= 14.0\nsquared_error = 491524.796\nsamples = 912\nvalue = 1105.488", fillcolor="#fae5d6"] ;
1 [label="Ram <= 7.0\nsquared_error = 252741.407\nsamples = 765\nvalue = 922.138", fillcolor="#fbeade"] ;
0 -> 1 [labeldistance=2.5, labelangle=45, headlabel="True"] ;
2 [label="SSD <= 96.0\nsquared_error = 67517.269\nsamples = 312\nvalue = 553.875", fillcolor="#fdf5f0"] ;
1 -> 2 ;
3 [label="Ram <= 3.0\nsquared_error = 46078.345\nsamples = 218\nvalue = 487.132", fillcolor="#fdf7f3"] ;
2 -> 3 ;
4 [label="PPI <= 123.515\nsquared_error = 4058.286\nsamples = 13\nvalue = 261.396", fillcolor="#fffefd"] ;
3 -> 4 ;
5 [label="squared_error = 4467.548\nsamples = 7\nvalue = 290.829", fillcolor="#fffdfc"] ;
4 -> 5 ;
6 [label="squared_error = 1391.082\nsamples = 6\nvalue = 227.058", fillcolor="#ffffff"] ;
4 -> 6 ;
7 [label="SSD <= 8.0\nsquared_error = 45306.727\nsamples = 205\nvalue = 501.447", fillcolor="#fdf7f2"] ;
3 -> 7 ;
8 [label="PPI <= 170.932\nsquared_error = 45033.688\nsamples = 198\nvalue = 509.134", fillcolor="#fdf7f2"] ;
7 -> 8 ;
9 [label="Ram <= 5.0\nsquared_error = 39998.578\nsamples = 192\nvalue = 502.09", fillcolor="#fdf7f2"] ;
8 -> 9 ;
10 [label="PPI <= 111.538\nsquared_error = 41982.756\nsamples = 173\nvalue = 491.892", fillcolor="#fdf7f3"] ;
9 -> 10 ;
11 [label="PPI <= 103.284\nsquared_error = 29081.017\nsamples = 89\nvalue = 462.183", fillcolor="#fef8f4"] ;
10 -> 11 ;
12 [label="squared_error = 30014.696\nsamples = 85\nvalue = 460.815", fillcolor="#fef8f4"] ;
11 -> 12 ;
13 [label="squared_error = 8355.688\nsamples = 4\nvalue = 491.25", fillcolor="#fdf7f3"] ;
11 -> 13 ;
14 [label="PPI <= 122.581\nsquared_error = 53726.469\nsamples = 84\nvalue = 523.369", fillcolor="#fdf6f1"] ;
10 -> 14 ;
15 [label="squared_error = 94960.62\nsamples = 19\nvalue = 608.105", fillcolor="#fdf4ed"] ;
14 -> 15 ;
16 [label="X_res <= 1643.0\nsquared_error = 38961.083\nsamples = 65\nvalue = 498.6", fillcolor="#fdf7f2"] ;
14 -> 16 ;
17 [label="squared_error = 8923.621\nsamples = 14\nvalue = 372.85", fillcolor="#fefbf8"] ;
16 -> 17 ;
18 [label="PPI <= 152.105\nsquared_error = 41674.19\nsamples = 51\nvalue = 533.12", fillcolor="#fdf6f1"] ;
16 -> 18 ;
19 [label="squared_error = 29917.638\nsamples = 44\nvalue = 529.435", fillcolor="#fdf6f1"] ;
18 -> 19 ;
20 [label="squared_error = 114950.562\nsamples = 7\nvalue = 556.284", fillcolor="#fdf5f0"] ;
18 -> 20 ;
21 [label="PPI <= 134.274\nsquared_error = 12362.87\nsamples = 19\nvalue = 594.946", fillcolor="#fdf4ee"] ;
9 -> 21 ;
22 [label="squared_error = 15347.25\nsamples = 10\nvalue = 614.5", fillcolor="#fdf3ed"] ;
21 -> 22 ;
23 [label="squared_error = 8150.029\nsamples = 9\nvalue = 573.22", fillcolor="#fdf5ef"] ;
21 -> 23 ;
24 [label="squared_error = 153759.295\nsamples = 6\nvalue = 734.545", fillcolor="#fcf0e7"] ;
8 -> 24 ;
25 [label="squared_error = 4074.589\nsamples = 7\nvalue = 283.999", fillcolor="#fffdfc"] ;
7 -> 25 ;
26 [label="PPI <= 149.281\nsquared_error = 82946.908\nsamples = 94\nvalue = 708.663", fillcolor="#fcf1e8"] ;
2 -> 26 ;
27 [label="PPI <= 103.284\nsquared_error = 44519.598\nsamples = 69\nvalue = 613.741", fillcolor="#fdf3ed"] ;
26 -> 27 ;
28 [label="SSD <= 192.0\nsquared_error = 24580.009\nsamples = 15\nvalue = 492.234", fillcolor="#fdf7f3"] ;
27 -> 28 ;
29 [label="squared_error = 7825.856\nsamples = 11\nvalue = 423.965", fillcolor="#fef9f6"] ;
28 -> 29 ;
30 [label="squared_error = 22591.552\nsamples = 4\nvalue = 679.973", fillcolor="#fcf2ea"] ;
28 -> 30 ;
31 [label="PPI <= 131.215\nsquared_error = 44818.105\nsamples = 54\nvalue = 647.493", fillcolor="#fcf2eb"] ;
27 -> 31 ;
32 [label="PPI <= 121.597\nsquared_error = 91334.138\nsamples = 12\nvalue = 827.998", fillcolor="#fbede3"] ;
31 -> 32 ;
33 [label="squared_error = 46298.98\nsamples = 7\nvalue = 714.857", fillcolor="#fcf0e8"] ;
32 -> 33 ;
34 [label="squared_error = 111372.873\nsamples = 5\nvalue = 986.394", fillcolor="#fae8db"] ;
32 -> 34 ;
35 [label="SSD <= 192.0\nsquared_error = 19558.904\nsamples = 42\nvalue = 595.92", fillcolor="#fdf4ee"] ;
31 -> 35 ;
36 [label="squared_error = 18334.711\nsamples = 15\nvalue = 577.793", fillcolor="#fdf5ef"] ;
35 -> 36 ;
37 [label="Ram <= 5.0\nsquared_error = 19955.064\nsamples = 27\nvalue = 605.99", fillcolor="#fdf4ed"] ;
35 -> 37 ;
38 [label="squared_error = 24884.767\nsamples = 20\nvalue = 600.108", fillcolor="#fdf4ee"] ;
37 -> 38 ;
39 [label="squared_error = 5488.913\nsamples = 7\nvalue = 622.796", fillcolor="#fdf3ec"] ;
37 -> 39 ;
40 [label="PPI <= 161.491\nsquared_error = 95501.469\nsamples = 25\nvalue = 970.649", fillcolor="#fae9dc"] ;
26 -> 40 ;
41 [label="SSD <= 154.0\nsquared_error = 84729.287\nsamples = 15\nvalue = 904.058", fillcolor="#fbebdf"] ;
40 -> 41 ;
42 [label="squared_error = 57258.052\nsamples = 7\nvalue = 830.554", fillcolor="#fbede3"] ;
41 -> 42 ;
43 [label="squared_error = 99902.655\nsamples = 8\nvalue = 968.374", fillcolor="#fae9dc"] ;
41 -> 43 ;
44 [label="squared_error = 95030.986\nsamples = 10\nvalue = 1070.535", fillcolor="#fae6d8"] ;
40 -> 44 ;
45 [label="SSD <= 218.0\nsquared_error = 222575.18\nsamples = 453\nvalue = 1175.776", fillcolor="#f9e3d3"] ;
1 -> 45 ;
46 [label="PPI <= 118.651\nsquared_error = 117313.461\nsamples = 177\nvalue = 932.763", fillcolor="#fbeade"] ;
45 -> 46 ;
47 [label="SSD <= 64.0\nsquared_error = 20488.042\nsamples = 37\nvalue = 604.063", fillcolor="#fdf4ed"] ;
46 -> 47 ;
48 [label="PPI <= 103.284\nsquared_error = 19974.626\nsamples = 32\nvalue = 593.701", fillcolor="#fdf4ee"] ;
47 -> 48 ;
49 [label="squared_error = 17879.245\nsamples = 24\nvalue = 602.849", fillcolor="#fdf4ed"] ;
48 -> 49 ;
50 [label="squared_error = 25256.488\nsamples = 8\nvalue = 566.256", fillcolor="#fdf5ef"] ;
48 -> 50 ;
51 [label="squared_error = 18689.043\nsamples = 5\nvalue = 670.378", fillcolor="#fcf2ea"] ;
47 -> 51 ;
52 [label="PPI <= 127.507\nsquared_error = 106801.96\nsamples = 140\nvalue = 1019.634", fillcolor="#fae7da"] ;
46 -> 52 ;
53 [label="Ram <= 10.0\nsquared_error = 160431.707\nsamples = 31\nvalue = 1238.762", fillcolor="#f9e1d0"] ;
52 -> 53 ;
54 [label="SSD <= 64.0\nsquared_error = 158897.256\nsamples = 27\nvalue = 1203.138", fillcolor="#f9e2d1"] ;
53 -> 54 ;
55 [label="squared_error = 373272.444\nsamples = 9\nvalue = 1216.333", fillcolor="#f9e2d1"] ;
54 -> 55 ;
56 [label="squared_error = 51579.077\nsamples = 18\nvalue = 1196.541", fillcolor="#f9e2d2"] ;
54 -> 56 ;
57 [label="squared_error = 104400.652\nsamples = 4\nvalue = 1479.225", fillcolor="#f7dac4"] ;
53 -> 57 ;
58 [label="SSD <= 64.0\nsquared_error = 74009.351\nsamples = 109\nvalue = 957.313", fillcolor="#fbe9dd"] ;
52 -> 58 ;
59 [label="PPI <= 149.281\nsquared_error = 68661.34\nsamples = 68\nvalue = 883.948", fillcolor="#fbebe0"] ;
58 -> 59 ;
60 [label="squared_error = 51310.94\nsamples = 61\nvalue = 858.073", fillcolor="#fbece1"] ;
59 -> 60 ;
61 [label="squared_error = 163181.673\nsamples = 7\nvalue = 1109.429", fillcolor="#fae5d6"] ;
59 -> 61 ;
62 [label="PPI <= 161.491\nsquared_error = 59145.973\nsamples = 41\nvalue = 1078.994", fillcolor="#fae6d7"] ;
58 -> 62 ;
63 [label="squared_error = 56396.101\nsamples = 37\nvalue = 1059.542", fillcolor="#fae6d8"] ;
62 -> 63 ;
64 [label="squared_error = 48707.963\nsamples = 4\nvalue = 1258.923", fillcolor="#f9e0cf"] ;
62 -> 64 ;
65 [label="PPI <= 170.932\nsquared_error = 227919.896\nsamples = 276\nvalue = 1331.621", fillcolor="#f8decb"] ;
45 -> 65 ;
66 [label="SSD <= 384.0\nsquared_error = 211006.999\nsamples = 228\nvalue = 1258.197", fillcolor="#f9e0cf"] ;
65 -> 66 ;
67 [label="PPI <= 109.024\nsquared_error = 193141.614\nsamples = 205\nvalue = 1220.412", fillcolor="#f9e1d0"] ;
66 -> 67 ;
68 [label="squared_error = 47321.857\nsamples = 5\nvalue = 694.778", fillcolor="#fcf1e9"] ;
67 -> 68 ;
69 [label="PPI <= 134.274\nsquared_error = 189707.148\nsamples = 200\nvalue = 1233.553", fillcolor="#f9e1d0"] ;
67 -> 69 ;
70 [label="ScreenResolution <= 1561344.0\nsquared_error = 575912.676\nsamples = 13\nvalue = 1507.862", fillcolor="#f7d9c3"] ;
69 -> 70 ;
71 [label="squared_error = 72812.116\nsamples = 6\nvalue = 1354.802", fillcolor="#f8ddca"] ;
70 -> 71 ;
72 [label="squared_error = 969848.877\nsamples = 7\nvalue = 1639.057", fillcolor="#f6d5bd"] ;
70 -> 72 ;
73 [label="PPI <= 149.281\nsquared_error = 157264.002\nsamples = 187\nvalue = 1214.483", fillcolor="#f9e2d1"] ;
69 -> 73 ;
74 [label="squared_error = 184386.867\nsamples = 87\nvalue = 1136.465", fillcolor="#f9e4d4"] ;
73 -> 74 ;
75 [label="PPI <= 157.917\nsquared_error = 123764.383\nsamples = 100\nvalue = 1282.359", fillcolor="#f9e0ce"] ;
73 -> 75 ;
76 [label="squared_error = 103093.007\nsamples = 50\nvalue = 1253.927", fillcolor="#f9e0cf"] ;
75 -> 76 ;
77 [label="squared_error = 142819.025\nsamples = 50\nvalue = 1310.791", fillcolor="#f8dfcc"] ;
75 -> 77 ;
78 [label="PPI <= 162.057\nsquared_error = 244098.938\nsamples = 23\nvalue = 1594.973", fillcolor="#f7d6bf"] ;
66 -> 78 ;
79 [label="PPI <= 149.281\nsquared_error = 200482.092\nsamples = 17\nvalue = 1733.904", fillcolor="#f6d2b8"] ;
78 -> 79 ;
80 [label="squared_error = 164582.661\nsamples = 8\nvalue = 1627.499", fillcolor="#f6d5bd"] ;
79 -> 80 ;
81 [label="squared_error = 213382.748\nsamples = 9\nvalue = 1828.487", fillcolor="#f5cfb4"] ;
79 -> 81 ;
82 [label="squared_error = 158039.222\nsamples = 6\nvalue = 1201.333", fillcolor="#f9e2d1"] ;
78 -> 82 ;
83 [label="PPI <= 218.108\nsquared_error = 161009.303\nsamples = 48\nvalue = 1680.389", fillcolor="#f6d4bb"] ;
65 -> 83 ;
84 [label="ScreenResolution <= 3539712.0\nsquared_error = 136933.486\nsamples = 25\nvalue = 1779.121", fillcolor="#f5d1b6"] ;
83 -> 84 ;
85 [label="PPI <= 185.59\nsquared_error = 66881.571\nsamples = 18\nvalue = 1618.826", fillcolor="#f6d6be"] ;
84 -> 85 ;
86 [label="squared_error = 69889.614\nsamples = 13\nvalue = 1641.078", fillcolor="#f6d5bd"] ;
85 -> 86 ;
87 [label="squared_error = 54425.984\nsamples = 5\nvalue = 1560.97", fillcolor="#f7d7c1"] ;
85 -> 87 ;
88 [label="squared_error = 81095.306\nsamples = 7\nvalue = 2191.31", fillcolor="#f3c4a3"] ;
84 -> 88 ;
89 [label="PPI <= 279.239\nsquared_error = 165065.785\nsamples = 23\nvalue = 1573.071", fillcolor="#f7d7c0"] ;
83 -> 89 ;
90 [label="PPI <= 234.742\nsquared_error = 78451.757\nsamples = 17\nvalue = 1439.526", fillcolor="#f8dbc6"] ;
89 -> 90 ;
91 [label="squared_error = 62135.06\nsamples = 4\nvalue = 1574.712", fillcolor="#f7d7c0"] ;
90 -> 91 ;
92 [label="squared_error = 76118.919\nsamples = 13\nvalue = 1397.931", fillcolor="#f8dcc8"] ;
90 -> 92 ;
93 [label="squared_error = 216773.984\nsamples = 6\nvalue = 1951.447", fillcolor="#f4ccae"] ;
89 -> 93 ;
94 [label="Ram <= 28.0\nsquared_error = 648785.201\nsamples = 147\nvalue = 2059.658", fillcolor="#f4c8a9"] ;
0 -> 94 [labeldistance=2.5, labelangle=-45, headlabel="False"] ;
95 [label="SSD <= 64.0\nsquared_error = 329134.912\nsamples = 134\nvalue = 1906.744", fillcolor="#f5cdb0"] ;
94 -> 95 ;
96 [label="squared_error = 6651.876\nsamples = 5\nvalue = 1001.0", fillcolor="#fae8db"] ;
95 -> 96 ;
97 [label="X_res <= 2088.0\nsquared_error = 308604.408\nsamples = 129\nvalue = 1941.851", fillcolor="#f4ccaf"] ;
95 -> 97 ;
98 [label="PPI <= 134.274\nsquared_error = 311144.156\nsamples = 98\nvalue = 1862.314", fillcolor="#f5ceb2"] ;
97 -> 98 ;
99 [label="SSD <= 192.0\nsquared_error = 363664.29\nsamples = 37\nvalue = 2066.844", fillcolor="#f4c8a9"] ;
98 -> 99 ;
100 [label="squared_error = 160826.824\nsamples = 4\nvalue = 2429.198", fillcolor="#f1bd98"] ;
99 -> 100 ;
101 [label="SSD <= 384.0\nsquared_error = 370406.333\nsamples = 33\nvalue = 2022.922", fillcolor="#f4caab"] ;
99 -> 101 ;
102 [label="squared_error = 403639.919\nsamples = 29\nvalue = 2026.187", fillcolor="#f4c9ab"] ;
101 -> 102 ;
103 [label="squared_error = 128825.188\nsamples = 4\nvalue = 1999.25", fillcolor="#f4caac"] ;
101 -> 103 ;
104 [label="PPI <= 144.036\nsquared_error = 238523.322\nsamples = 61\nvalue = 1738.255", fillcolor="#f6d2b8"] ;
98 -> 104 ;
105 [label="SSD <= 384.0\nsquared_error = 217675.899\nsamples = 39\nvalue = 1642.119", fillcolor="#f6d5bd"] ;
104 -> 105 ;
106 [label="SSD <= 192.0\nsquared_error = 164380.859\nsamples = 27\nvalue = 1636.333", fillcolor="#f6d5bd"] ;
105 -> 106 ;
107 [label="squared_error = 60712.64\nsamples = 5\nvalue = 1659.4", fillcolor="#f6d4bc"] ;
106 -> 107 ;
108 [label="squared_error = 187793.405\nsamples = 22\nvalue = 1631.09", fillcolor="#f6d5bd"] ;
106 -> 108 ;
109 [label="squared_error = 337344.91\nsamples = 12\nvalue = 1655.138", fillcolor="#f6d4bc"] ;
105 -> 109 ;
110 [label="PPI <= 161.491\nsquared_error = 230052.669\nsamples = 22\nvalue = 1908.677", fillcolor="#f5cdb0"] ;
104 -> 110 ;
111 [label="SSD <= 384.0\nsquared_error = 292108.744\nsamples = 11\nvalue = 2115.727", fillcolor="#f3c7a7"] ;
110 -> 111 ;
112 [label="squared_error = 118825.0\nsamples = 4\nvalue = 2004.0", fillcolor="#f4caac"] ;
111 -> 112 ;
113 [label="squared_error = 379918.816\nsamples = 7\nvalue = 2179.571", fillcolor="#f3c5a4"] ;
111 -> 113 ;
114 [label="squared_error = 82257.189\nsamples = 11\nvalue = 1701.627", fillcolor="#f6d3ba"] ;
110 -> 114 ;
115 [label="PPI <= 265.362\nsquared_error = 217355.47\nsamples = 31\nvalue = 2193.289", fillcolor="#f3c4a3"] ;
97 -> 115 ;
116 [label="X_res <= 2720.0\nsquared_error = 55337.035\nsamples = 14\nvalue = 2566.069", fillcolor="#f1b992"] ;
115 -> 116 ;
117 [label="squared_error = 46282.8\nsamples = 10\nvalue = 2501.0", fillcolor="#f1bb95"] ;
116 -> 117 ;
118 [label="squared_error = 40925.019\nsamples = 4\nvalue = 2728.742", fillcolor="#f0b48a"] ;
116 -> 118 ;
119 [label="ScreenResolution <= 7027200.0\nsquared_error = 142094.678\nsamples = 17\nvalue = 1886.294", fillcolor="#f5ceb1"] ;
115 -> 119 ;
120 [label="squared_error = 77871.36\nsamples = 5\nvalue = 1801.2", fillcolor="#f5d0b5"] ;
119 -> 120 ;
121 [label="squared_error = 164580.188\nsamples = 12\nvalue = 1921.75", fillcolor="#f5cdb0"] ;
119 -> 121 ;
122 [label="ScreenResolution <= 5184000.0\nsquared_error = 1218237.592\nsamples = 13\nvalue = 3635.851", fillcolor="#ea995f"] ;
94 -> 122 ;
123 [label="squared_error = 170664.68\nsamples = 8\nvalue = 3122.836", fillcolor="#eda977"] ;
122 -> 123 ;
124 [label="squared_error = 1799509.241\nsamples = 5\nvalue = 4456.674", fillcolor="#e58139"] ;
122 -> 124 ;
}